digraph Tree {
node [shape=box, style="filled, rounded", color="black", fontname=helvetica] ;
edge [fontname=helvetica] ;
0 [label="is_married <= 0.5\ngini = 0.48\nsamples = 100.0%\nvalue = [0.6, 0.4]\nclass = Died", fillcolor="#f7d6bf"] ;
1 [label="title_Mr <= 0.5\n0.44\n85.0%\n[0.67, 0.33]\nDied", fillcolor="#f2bf9b"] ;
0 -> 1 [labeldistance=2.5, labelangle=45, headlabel="True"] ;
2 [label="p_class_3 <= 0.5\n0.35\n24.9%\n[0.22, 0.78]\nSurvived", fillcolor="#72b9ed"] ;
1 -> 2 ;
3 [label="deck_M <= 0.5\n0.02\n11.2%\n[0.01, 0.99]\nSurvived", fillcolor="#3b9ee5"] ;
2 -> 3 ;
4 [label="fam_size_small <= 0.5\n0.04\n6.1%\n[0.02, 0.98]\nSurvived", fillcolor="#3d9fe6"] ;
3 -> 4 ;
5 [label="deck_BDE <= 0.5\n0.07\n3.8%\n[0.03, 0.97]\nSurvived", fillcolor="#40a0e6"] ;
4 -> 5 ;
6 [label="fare <= 39.11\n0.22\n1.3%\n[0.12, 0.88]\nSurvived", fillcolor="#55abe9"] ;
5 -> 6 ;
7 [label="(...)", fillcolor="#C0C0C0"] ;
6 -> 7 ;
10 [label="(...)", fillcolor="#C0C0C0"] ;
6 -> 10 ;
11 [label="0.0\n2.5%\n[0.0, 1.0]\nSurvived", fillcolor="#399de5"] ;
5 -> 11 ;
12 [label="0.0\n2.3%\n[0.0, 1.0]\nSurvived", fillcolor="#399de5"] ;
4 -> 12 ;
13 [label="0.0\n5.0%\n[0.0, 1.0]\nSurvived", fillcolor="#399de5"] ;
3 -> 13 ;
14 [label="ticket_freq <= 5.0\n0.47\n13.7%\n[0.39, 0.61]\nSurvived", fillcolor="#b6dbf5"] ;
2 -> 14 ;
15 [label="embarked_S <= 0.5\n0.42\n11.9%\n[0.3, 0.7]\nSurvived", fillcolor="#8fc8f0"] ;
14 -> 15 ;
16 [label="fam_size_small <= 0.5\n0.17\n5.2%\n[0.1, 0.9]\nSurvived", fillcolor="#4ea7e8"] ;
15 -> 16 ;
17 [label="embarked_Q <= 0.5\n0.12\n3.1%\n[0.06, 0.94]\nSurvived", fillcolor="#46a4e7"] ;
16 -> 17 ;
18 [label="(...)", fillcolor="#C0C0C0"] ;
17 -> 18 ;
19 [label="(...)", fillcolor="#C0C0C0"] ;
17 -> 19 ;
32 [label="title_Miss <= 0.5\n0.26\n2.2%\n[0.15, 0.85]\nSurvived", fillcolor="#5caeea"] ;
16 -> 32 ;
33 [label="(...)", fillcolor="#C0C0C0"] ;
32 -> 33 ;
34 [label="(...)", fillcolor="#C0C0C0"] ;
32 -> 34 ;
45 [label="fam_size_small <= 0.5\n0.5\n6.7%\n[0.49, 0.51]\nSurvived", fillcolor="#f8fcfe"] ;
15 -> 45 ;
46 [label="ticket_freq <= 1.5\n0.5\n4.3%\n[0.54, 0.46]\nDied", fillcolor="#fbebe0"] ;
45 -> 46 ;
47 [label="(...)", fillcolor="#C0C0C0"] ;
46 -> 47 ;
60 [label="(...)", fillcolor="#C0C0C0"] ;
46 -> 60 ;
73 [label="ticket_freq <= 1.5\n0.48\n2.3%\n[0.41, 0.59]\nSurvived", fillcolor="#c2e1f7"] ;
45 -> 73 ;
74 [label="(...)", fillcolor="#C0C0C0"] ;
73 -> 74 ;
77 [label="(...)", fillcolor="#C0C0C0"] ;
73 -> 77 ;
80 [label="0.0\n1.8%\n[1.0, 0.0]\nDied", fillcolor="#e58139"] ;
14 -> 80 ;
81 [label="age <= 77.0\n0.25\n60.2%\n[0.85, 0.15]\nDied", fillcolor="#ea975b"] ;
1 -> 81 ;
82 [label="deck_BDE <= 0.5\n0.25\n60.0%\n[0.85, 0.15]\nDied", fillcolor="#e9975b"] ;
81 -> 82 ;
83 [label="deck_M <= 0.5\n0.2\n54.8%\n[0.88, 0.12]\nDied", fillcolor="#e89153"] ;
82 -> 83 ;
84 [label="age <= 45.1\n0.45\n5.2%\n[0.65, 0.35]\nDied", fillcolor="#f3c4a3"] ;
83 -> 84 ;
85 [label="deck_FG <= 0.5\n0.32\n3.1%\n[0.8, 0.2]\nDied", fillcolor="#eca06a"] ;
84 -> 85 ;
86 [label="(...)", fillcolor="#C0C0C0"] ;
85 -> 86 ;
95 [label="(...)", fillcolor="#C0C0C0"] ;
85 -> 95 ;
106 [label="fam_size_small <= 0.5\n0.49\n2.2%\n[0.44, 0.56]\nSurvived", fillcolor="#d7ebfa"] ;
84 -> 106 ;
107 [label="(...)", fillcolor="#C0C0C0"] ;
106 -> 107 ;
122 [label="(...)", fillcolor="#C0C0C0"] ;
106 -> 122 ;
125 [label="age <= 32.15\n0.17\n49.5%\n[0.91, 0.09]\nDied", fillcolor="#e88e4d"] ;
83 -> 125 ;
126 [label="ticket_freq <= 6.5\n0.19\n32.8%\n[0.89, 0.11]\nDied", fillcolor="#e89051"] ;
125 -> 126 ;
127 [label="(...)", fillcolor="#C0C0C0"] ;
126 -> 127 ;
238 [label="(...)", fillcolor="#C0C0C0"] ;
126 -> 238 ;
239 [label="fare <= 97.51\n0.11\n16.8%\n[0.94, 0.06]\nDied", fillcolor="#e78945"] ;
125 -> 239 ;
240 [label="(...)", fillcolor="#C0C0C0"] ;
239 -> 240 ;
277 [label="(...)", fillcolor="#C0C0C0"] ;
239 -> 277 ;
278 [label="fare <= 52.21\n0.49\n5.2%\n[0.55, 0.45]\nDied", fillcolor="#fae8da"] ;
82 -> 278 ;
279 [label="fare <= 32.0\n0.42\n2.7%\n[0.7, 0.3]\nDied", fillcolor="#f0b890"] ;
278 -> 279 ;
280 [label="embarked_S <= 0.5\n0.48\n2.0%\n[0.61, 0.39]\nDied", fillcolor="#f6d1b7"] ;
279 -> 280 ;
281 [label="(...)", fillcolor="#C0C0C0"] ;
280 -> 281 ;
284 [label="(...)", fillcolor="#C0C0C0"] ;
280 -> 284 ;
291 [label="0.0\n0.7%\n[1.0, 0.0]\nDied", fillcolor="#e58139"] ;
279 -> 291 ;
292 [label="fam_size_small <= 0.5\n0.49\n2.5%\n[0.42, 0.58]\nSurvived", fillcolor="#cae5f8"] ;
278 -> 292 ;
293 [label="ticket_freq <= 2.5\n0.5\n0.4%\n[0.5, 0.5]\nDied", fillcolor="#ffffff"] ;
292 -> 293 ;
294 [label="(...)", fillcolor="#C0C0C0"] ;
293 -> 294 ;
295 [label="(...)", fillcolor="#C0C0C0"] ;
293 -> 295 ;
296 [label="fare <= 70.32\n0.48\n2.2%\n[0.41, 0.59]\nSurvived", fillcolor="#c2e1f7"] ;
292 -> 296 ;
297 [label="(...)", fillcolor="#C0C0C0"] ;
296 -> 297 ;
304 [label="(...)", fillcolor="#C0C0C0"] ;
296 -> 304 ;
309 [label="0.0\n0.2%\n[0.0, 1.0]\nSurvived", fillcolor="#399de5"] ;
81 -> 309 ;
310 [label="p_class_3 <= 0.5\n0.34\n15.0%\n[0.22, 0.78]\nSurvived", fillcolor="#71b9ec"] ;
0 -> 310 [labeldistance=2.5, labelangle=-45, headlabel="False"] ;
311 [label="embarked_S <= 0.5\n0.09\n9.5%\n[0.05, 0.95]\nSurvived", fillcolor="#42a2e6"] ;
310 -> 311 ;
312 [label="0.0\n3.2%\n[0.0, 1.0]\nSurvived", fillcolor="#399de5"] ;
311 -> 312 ;
313 [label="ticket_freq <= 3.5\n0.12\n6.3%\n[0.06, 0.94]\nSurvived", fillcolor="#46a4e7"] ;
311 -> 313 ;
314 [label="deck_M <= 0.5\n0.03\n6.1%\n[0.02, 0.98]\nSurvived", fillcolor="#3c9fe5"] ;
313 -> 314 ;
315 [label="p_class_2 <= 0.5\n0.07\n2.9%\n[0.03, 0.97]\nSurvived", fillcolor="#40a0e6"] ;
314 -> 315 ;
316 [label="0.0\n2.3%\n[0.0, 1.0]\nSurvived", fillcolor="#399de5"] ;
315 -> 316 ;
317 [label="age <= 45.5\n0.32\n0.5%\n[0.2, 0.8]\nSurvived", fillcolor="#6ab6ec"] ;
315 -> 317 ;
318 [label="(...)", fillcolor="#C0C0C0"] ;
317 -> 318 ;
319 [label="(...)", fillcolor="#C0C0C0"] ;
317 -> 319 ;
320 [label="0.0\n3.2%\n[0.0, 1.0]\nSurvived", fillcolor="#399de5"] ;
314 -> 320 ;
321 [label="0.0\n0.2%\n[1.0, 0.0]\nDied", fillcolor="#e58139"] ;
313 -> 321 ;
322 [label="fam_size_large <= 0.5\n0.5\n5.4%\n[0.49, 0.51]\nSurvived", fillcolor="#f8fcfe"] ;
310 -> 322 ;
323 [label="age <= 38.0\n0.49\n4.3%\n[0.43, 0.57]\nSurvived", fillcolor="#d1e8f9"] ;
322 -> 323 ;
324 [label="deck_M <= 0.5\n0.42\n3.6%\n[0.3, 0.7]\nSurvived", fillcolor="#8dc6f0"] ;
323 -> 324 ;
325 [label="0.0\n0.2%\n[0.0, 1.0]\nSurvived", fillcolor="#399de5"] ;
324 -> 325 ;
326 [label="fare <= 23.25\n0.44\n3.4%\n[0.33, 0.67]\nSurvived", fillcolor="#9ccef2"] ;
324 -> 326 ;
327 [label="embarked_S <= 0.5\n0.43\n3.2%\n[0.31, 0.69]\nSurvived", fillcolor="#93caf1"] ;
326 -> 327 ;
328 [label="(...)", fillcolor="#C0C0C0"] ;
327 -> 328 ;
335 [label="(...)", fillcolor="#C0C0C0"] ;
327 -> 335 ;
352 [label="0.0\n0.2%\n[1.0, 0.0]\nDied", fillcolor="#e58139"] ;
326 -> 352 ;
353 [label="0.0\n0.7%\n[1.0, 0.0]\nDied", fillcolor="#e58139"] ;
323 -> 353 ;
354 [label="ticket_freq <= 4.5\n0.4\n1.1%\n[0.73, 0.27]\nDied", fillcolor="#efb083"] ;
322 -> 354 ;
355 [label="fare <= 26.23\n0.49\n0.5%\n[0.57, 0.43]\nDied", fillcolor="#f8e0ce"] ;
354 -> 355 ;
356 [label="0.0\n0.2%\n[1.0, 0.0]\nDied", fillcolor="#e58139"] ;
355 -> 356 ;
357 [label="fare <= 32.88\n0.48\n0.4%\n[0.4, 0.6]\nSurvived", fillcolor="#bddef6"] ;
355 -> 357 ;
358 [label="0.0\n0.2%\n[0.0, 1.0]\nSurvived", fillcolor="#399de5"] ;
357 -> 358 ;
359 [label="0.0\n0.2%\n[1.0, 0.0]\nDied", fillcolor="#e58139"] ;
357 -> 359 ;
360 [label="0.0\n0.5%\n[1.0, 0.0]\nDied", fillcolor="#e58139"] ;
354 -> 360 ;
}